digraph Tree {
node [shape=box, style="filled, rounded", color="black", fontname="helvetica"] ;
edge [fontname="helvetica"] ;
0 [label="DEP_TIME_M <= 898.5\ngini = 0.5\nsamples = 31388\nvalue = [15694, 15694]\nclass = 0", fillcolor="#ffffff"] ;
1 [label="MONTH <= 1.5\ngini = 0.488\nsamples = 16527\nvalue = [9569, 6958]\nclass = 0", fillcolor="#f8ddc9"] ;
0 -> 1 [labeldistance=2.5, labelangle=45, headlabel="True"] ;
2 [label="DEP_TIME_M <= 262.5\ngini = 0.421\nsamples = 4973\nvalue = [3472, 1501]\nclass = 0", fillcolor="#f0b78f"] ;
1 -> 2 ;
3 [label="gini = 0.0\nsamples = 45\nvalue = [0, 45]\nclass = 1", fillcolor="#399de5"] ;
2 -> 3 ;
4 [label="DEP_TIME_M <= 449.5\ngini = 0.416\nsamples = 4928\nvalue = [3472, 1456]\nclass = 0", fillcolor="#f0b68c"] ;
2 -> 4 ;
5 [label="CRS_ARR_M <= 1007.0\ngini = 0.29\nsamples = 939\nvalue = [774, 165]\nclass = 0", fillcolor="#eb9c63"] ;
4 -> 5 ;
6 [label="gini = 0.276\nsamples = 927\nvalue = [774, 153]\nclass = 0", fillcolor="#ea9a60"] ;
5 -> 6 ;
7 [label="gini = 0.0\nsamples = 12\nvalue = [0, 12]\nclass = 1", fillcolor="#399de5"] ;
5 -> 7 ;
8 [label="CRS_ARR_M <= 538.5\ngini = 0.438\nsamples = 3989\nvalue = [2698, 1291]\nclass = 0", fillcolor="#f1bd98"] ;
4 -> 8 ;
9 [label="gini = 0.237\nsamples = 51\nvalue = [7, 44]\nclass = 1", fillcolor="#58ade9"] ;
8 -> 9 ;
10 [label="gini = 0.433\nsamples = 3938\nvalue = [2691, 1247]\nclass = 0", fillcolor="#f1bb95"] ;
8 -> 10 ;
11 [label="MONTH <= 10.5\ngini = 0.498\nsamples = 11554\nvalue = [6097, 5457]\nclass = 0", fillcolor="#fcf2ea"] ;
1 -> 11 ;
12 [label="gini = 0.0\nsamples = 1017\nvalue = [0, 1017]\nclass = 1", fillcolor="#399de5"] ;
11 -> 12 ;
13 [label="DEP_TIME_M <= 281.0\ngini = 0.488\nsamples = 10537\nvalue = [6097, 4440]\nclass = 0", fillcolor="#f8ddc9"] ;
11 -> 13 ;
14 [label="gini = 0.0\nsamples = 164\nvalue = [0, 164]\nclass = 1", fillcolor="#399de5"] ;
13 -> 14 ;
15 [label="DEP_TIME_M <= 484.5\ngini = 0.485\nsamples = 10373\nvalue = [6097, 4276]\nclass = 0", fillcolor="#f7d9c4"] ;
13 -> 15 ;
16 [label="gini = 0.409\nsamples = 3199\nvalue = [2282, 917]\nclass = 0", fillcolor="#efb489"] ;
15 -> 16 ;
17 [label="gini = 0.498\nsamples = 7174\nvalue = [3815, 3359]\nclass = 0", fillcolor="#fcf0e7"] ;
15 -> 17 ;
18 [label="MONTH <= 1.5\ngini = 0.485\nsamples = 14861\nvalue = [6125, 8736]\nclass = 1", fillcolor="#c4e2f7"] ;
0 -> 18 [labeldistance=2.5, labelangle=-45, headlabel="False"] ;
19 [label="DEP_TIME_M <= 917.5\ngini = 0.495\nsamples = 4140\nvalue = [2268, 1872]\nclass = 0", fillcolor="#fae9dc"] ;
18 -> 19 ;
20 [label="CRS_ELAPSED_TIME <= 189.5\ngini = 0.293\nsamples = 202\nvalue = [36, 166]\nclass = 1", fillcolor="#64b2eb"] ;
19 -> 20 ;
21 [label="CRS_ARR_M <= 1077.5\ngini = 0.381\nsamples = 129\nvalue = [33, 96]\nclass = 1", fillcolor="#7dbfee"] ;
20 -> 21 ;
22 [label="gini = 0.212\nsamples = 83\nvalue = [10, 73]\nclass = 1", fillcolor="#54aae9"] ;
21 -> 22 ;
23 [label="gini = 0.5\nsamples = 46\nvalue = [23, 23]\nclass = 0", fillcolor="#ffffff"] ;
21 -> 23 ;
24 [label="sch_arr <= 40.0\ngini = 0.079\nsamples = 73\nvalue = [3, 70]\nclass = 1", fillcolor="#41a1e6"] ;
20 -> 24 ;
25 [label="gini = 0.028\nsamples = 70\nvalue = [1, 69]\nclass = 1", fillcolor="#3c9ee5"] ;
24 -> 25 ;
26 [label="gini = 0.444\nsamples = 3\nvalue = [2, 1]\nclass = 0", fillcolor="#f2c09c"] ;
24 -> 26 ;
27 [label="Humidity <= 29.5\ngini = 0.491\nsamples = 3938\nvalue = [2232, 1706]\nclass = 0", fillcolor="#f9e1d0"] ;
19 -> 27 ;
28 [label="CRS_ARR_M <= 1302.0\ngini = 0.492\nsamples = 595\nvalue = [260, 335]\nclass = 1", fillcolor="#d3e9f9"] ;
27 -> 28 ;
29 [label="gini = 0.461\nsamples = 389\nvalue = [140, 249]\nclass = 1", fillcolor="#a8d4f4"] ;
28 -> 29 ;
30 [label="gini = 0.486\nsamples = 206\nvalue = [120, 86]\nclass = 0", fillcolor="#f8dbc7"] ;
28 -> 30 ;
31 [label="DISTANCE <= 729.0\ngini = 0.484\nsamples = 3343\nvalue = [1972, 1371]\nclass = 0", fillcolor="#f7d9c3"] ;
27 -> 31 ;
32 [label="gini = 0.438\nsamples = 1040\nvalue = [703, 337]\nclass = 0", fillcolor="#f1bd98"] ;
31 -> 32 ;
33 [label="gini = 0.495\nsamples = 2303\nvalue = [1269, 1034]\nclass = 0", fillcolor="#fae8da"] ;
31 -> 33 ;
34 [label="MONTH <= 10.5\ngini = 0.461\nsamples = 10721\nvalue = [3857, 6864]\nclass = 1", fillcolor="#a8d4f4"] ;
18 -> 34 ;
35 [label="gini = 0.0\nsamples = 1252\nvalue = [0, 1252]\nclass = 1", fillcolor="#399de5"] ;
34 -> 35 ;
36 [label="DISTANCE <= 677.0\ngini = 0.483\nsamples = 9469\nvalue = [3857, 5612]\nclass = 1", fillcolor="#c1e0f7"] ;
34 -> 36 ;
37 [label="DEP_TIME_M <= 1389.5\ngini = 0.499\nsamples = 3048\nvalue = [1475, 1573]\nclass = 1", fillcolor="#f3f9fd"] ;
36 -> 37 ;
38 [label="gini = 0.5\nsamples = 2941\nvalue = [1475, 1466]\nclass = 0", fillcolor="#fffefe"] ;
37 -> 38 ;
39 [label="gini = 0.0\nsamples = 107\nvalue = [0, 107]\nclass = 1", fillcolor="#399de5"] ;
37 -> 39 ;
40 [label="DISTANCE <= 2445.0\ngini = 0.467\nsamples = 6421\nvalue = [2382, 4039]\nclass = 1", fillcolor="#aed7f4"] ;
36 -> 40 ;
41 [label="gini = 0.445\nsamples = 4468\nvalue = [1490, 2978]\nclass = 1", fillcolor="#9ccef2"] ;
40 -> 41 ;
42 [label="gini = 0.496\nsamples = 1953\nvalue = [892, 1061]\nclass = 1", fillcolor="#dfeffb"] ;
40 -> 42 ;
}